digraph Tree {
node [shape=box, style="filled, rounded", color="black", fontname="helvetica"] ;
edge [fontname="helvetica"] ;
0 [label="petal width (cm) <= 0.8\ngini = 0.67\nsamples = 96\nvalue = [52, 52, 46]\nclass = setosa", fillcolor="#ffffff"] ;
1 [label="gini = 0.0\nsamples = 32\nvalue = [52, 0, 0]\nclass = setosa", fillcolor="#e58139"] ;
0 -> 1 [labeldistance=2.5, labelangle=45, headlabel="True"] ;
2 [label="sepal length (cm) <= 6.35\ngini = 0.5\nsamples = 64\nvalue = [0, 52, 46]\nclass = versicolor", fillcolor="#e8fcf0"] ;
0 -> 2 [labeldistance=2.5, labelangle=-45, headlabel="False"] ;
3 [label="petal width (cm) <= 1.7\ngini = 0.36\nsamples = 38\nvalue = [0, 42, 13]\nclass = versicolor", fillcolor="#76eda8"] ;
2 -> 3 ;
4 [label="sepal length (cm) <= 5.95\ngini = 0.16\nsamples = 30\nvalue = [0, 41, 4]\nclass = versicolor", fillcolor="#4ce88d"] ;
3 -> 4 ;
5 [label="gini = 0.0\nsamples = 18\nvalue = [0, 29, 0]\nclass = versicolor", fillcolor="#39e581"] ;
4 -> 5 ;
6 [label="petal length (cm) <= 4.95\ngini = 0.38\nsamples = 12\nvalue = [0, 12, 4]\nclass = versicolor", fillcolor="#7beeab"] ;
4 -> 6 ;
7 [label="gini = 0.0\nsamples = 9\nvalue = [0, 12, 0]\nclass = versicolor", fillcolor="#39e581"] ;
6 -> 7 ;
8 [label="gini = 0.0\nsamples = 3\nvalue = [0, 0, 4]\nclass = virginica", fillcolor="#8139e5"] ;
6 -> 8 ;
9 [label="petal length (cm) <= 4.9\ngini = 0.18\nsamples = 8\nvalue = [0, 1, 9]\nclass = virginica", fillcolor="#8f4fe8"] ;
3 -> 9 ;
10 [label="sepal length (cm) <= 5.95\ngini = 0.5\nsamples = 2\nvalue = [0, 1, 1]\nclass = versicolor", fillcolor="#ffffff"] ;
9 -> 10 ;
11 [label="gini = 0.0\nsamples = 1\nvalue = [0, 1, 0]\nclass = versicolor", fillcolor="#39e581"] ;
10 -> 11 ;
12 [label="gini = 0.0\nsamples = 1\nvalue = [0, 0, 1]\nclass = virginica", fillcolor="#8139e5"] ;
10 -> 12 ;
13 [label="gini = 0.0\nsamples = 6\nvalue = [0, 0, 8]\nclass = virginica", fillcolor="#8139e5"] ;
9 -> 13 ;
14 [label="petal length (cm) <= 5.05\ngini = 0.36\nsamples = 26\nvalue = [0, 10, 33]\nclass = virginica", fillcolor="#a775ed"] ;
2 -> 14 ;
15 [label="gini = 0.0\nsamples = 7\nvalue = [0, 10, 0]\nclass = versicolor", fillcolor="#39e581"] ;
14 -> 15 ;
16 [label="gini = 0.0\nsamples = 19\nvalue = [0, 0, 33]\nclass = virginica", fillcolor="#8139e5"] ;
14 -> 16 ;
}